digraph Tree {
node [shape=box, style="filled", color="black"] ;
0 [label="worst radius <= 16.795\ngini = 0.468\nsamples = 426\nvalue = [159, 267]\nclass = benign", fillcolor="#afd7f4"] ;
1 [label="worst concave points <= 0.172\ngini = 0.143\nsamples = 283\nvalue = [22, 261]\nclass = benign", fillcolor="#4aa5e7"] ;
0 -> 1 [labeldistance=2.5, labelangle=45, headlabel="True"] ;
2 [label="worst concave points <= 0.136\ngini = 0.071\nsamples = 270\nvalue = [10, 260]\nclass = benign", fillcolor="#41a1e6"] ;
1 -> 2 ;
3 [label="radius error <= 0.643\ngini = 0.031\nsamples = 250\nvalue = [4, 246]\nclass = benign", fillcolor="#3c9fe5"] ;
2 -> 3 ;
4 [label="gini = 0.016\nsamples = 247\nvalue = [2, 245]\nclass = benign", fillcolor="#3b9ee5"] ;
3 -> 4 ;
5 [label="gini = 0.444\nsamples = 3\nvalue = [2, 1]\nclass = malignant", fillcolor="#f2c09c"] ;
3 -> 5 ;
6 [label="mean texture <= 20.225\ngini = 0.42\nsamples = 20\nvalue = [6, 14]\nclass = benign", fillcolor="#8ec7f0"] ;
2 -> 6 ;
7 [label="gini = 0.219\nsamples = 16\nvalue = [2, 14]\nclass = benign", fillcolor="#55abe9"] ;
6 -> 7 ;
8 [label="gini = 0.0\nsamples = 4\nvalue = [4, 0]\nclass = malignant", fillcolor="#e58139"] ;
6 -> 8 ;
9 [label="worst perimeter <= 78.63\ngini = 0.142\nsamples = 13\nvalue = [12, 1]\nclass = malignant", fillcolor="#e78c49"] ;
1 -> 9 ;
10 [label="gini = 0.0\nsamples = 1\nvalue = [0, 1]\nclass = benign", fillcolor="#399de5"] ;
9 -> 10 ;
11 [label="gini = 0.0\nsamples = 12\nvalue = [12, 0]\nclass = malignant", fillcolor="#e58139"] ;
9 -> 11 ;
12 [label="texture error <= 0.473\ngini = 0.08\nsamples = 143\nvalue = [137, 6]\nclass = malignant", fillcolor="#e68742"] ;
0 -> 12 [labeldistance=2.5, labelangle=-45, headlabel="False"] ;
13 [label="gini = 0.0\nsamples = 3\nvalue = [0, 3]\nclass = benign", fillcolor="#399de5"] ;
12 -> 13 ;
14 [label="worst concavity <= 0.191\ngini = 0.042\nsamples = 140\nvalue = [137, 3]\nclass = malignant", fillcolor="#e6843d"] ;
12 -> 14 ;
15 [label="mean texture <= 21.26\ngini = 0.5\nsamples = 6\nvalue = [3, 3]\nclass = malignant", fillcolor="#ffffff"] ;
14 -> 15 ;
16 [label="gini = 0.0\nsamples = 3\nvalue = [0, 3]\nclass = benign", fillcolor="#399de5"] ;
15 -> 16 ;
17 [label="gini = 0.0\nsamples = 3\nvalue = [3, 0]\nclass = malignant", fillcolor="#e58139"] ;
15 -> 17 ;
18 [label="gini = 0.0\nsamples = 134\nvalue = [134, 0]\nclass = malignant", fillcolor="#e58139"] ;
14 -> 18 ;
}